35 24
25 0.128543 -0.139498 -0.021801 -0.0085055 -0.0536259 -0.00882011 -0.0299336 -0.0763721 -0.247474 -0.0273696 0.216217 0.0898635 0.0341045 -0.182429 0.228207 0.18336 -0.215742 0.138954 -0.118561 0.086879 0.124101 -0.280759 0.181758 -0.204861
28 0.0947197 -0.129667 -0.0139963 -0.0221842 -0.0412872 -0.0183238 -0.00285347 -0.0737229 -0.213158 -0.0262888 0.185066 0.0840057 0.0676286 -0.175347 0.189083 0.165423 -0.210607 0.141799 -0.120301 0.0876486 0.137386 -0.207342 0.180974 -0.163467
34 0.323197 -0.162583 -0.0804026 0.154636 -0.0601067 -0.0833793 -0.207666 -0.0248718 -0.49111 -0.00504619 0.299053 0.226147 0.0435833 -0.208067 0.35711 0.213337 -0.27915 0.18965 -0.345343 0.0442664 0.107561 -0.530223 0.288338 -0.319874
30 0.0998449 -0.0928927 -0.0186817 -0.00464793 -0.0441276 -0.01171 -0.0383438 -0.0630674 -0.205668 -0.052257 0.136338 0.0579142 0.0238339 -0.158316 0.172292 0.135279 -0.165469 0.119219 -0.0778824 0.0693803 0.117933 -0.182823 0.164947 -0.140689
33 0.144485 -0.208669 0.0140933 -0.0986386 -0.121459 -0.0133299 0.0368892 -0.183464 -0.344616 -0.0986432 0.278171 0.0748691 0.121233 -0.300049 0.302246 0.275275 -0.336494 0.227945 -0.104457 0.148208 0.266046 -0.315733 0.292623 -0.268587
18 0.162069 -0.0924539 -0.000546759 0.0115497 -0.0528952 -0.0418952 -0.0789219 -0.0337737 -0.274554 -0.0486109 0.199419 0.116165 0.0352711 -0.130994 0.17147 0.15557 -0.18665 0.122582 -0.16638 0.0447013 0.113538 -0.278591 0.191764 -0.163054
0 0.180471 -0.23395 0.05464 -0.13276 -0.132135 -0.0606381 0.0513218 -0.228298 -0.423145 -0.134938 0.379385 0.0995639 0.124402 -0.376581 0.31647 0.306018 -0.407869 0.234785 -0.145876 0.225377 0.32913 -0.417869 0.366464 -0.327007
13 0.166926 -0.119488 0.00111117 0.0348928 -0.0507548 -0.060873 -0.0917137 -0.0345003 -0.267624 -0.0261519 0.215274 0.0981616 0.0260934 -0.149282 0.209506 0.170853 -0.225674 0.139606 -0.186222 0.0797688 0.102172 -0.309794 0.187253 -0.214902
32 0.160492 -0.172315 -0.00461666 -0.0359141 -0.0950556 -0.0364671 -0.0495768 -0.1462 -0.391684 -0.0692448 0.299439 0.109066 0.0721904 -0.28595 0.324025 0.264645 -0.292985 0.196637 -0.181511 0.138613 0.243372 -0.341986 0.307701 -0.251038
2 0.16784 -0.127165 -0.0158593 -0.00326892 -0.0848534 -0.0270099 -0.0441517 -0.0777163 -0.345362 -0.0304568 0.234057 0.104798 0.0717487 -0.195618 0.231164 0.187634 -0.26911 0.174035 -0.174911 0.100173 0.15387 -0.328514 0.25897 -0.21557
20 0.110236 -0.0760175 -0.00191636 -0.0156751 -0.0490725 -0.000424287 -0.000863193 -0.0761679 -0.201947 -0.0558636 0.172966 0.043953 0.0405736 -0.125522 0.147816 0.128439 -0.150639 0.0880155 -0.101043 0.0443558 0.107098 -0.216492 0.147756 -0.129611
15 0.0911932 -0.0761606 -0.002775 0.0117449 -0.0464222 -0.00972044 -0.000738876 -0.0595767 -0.191831 -0.0534915 0.127287 0.070575 0.0194406 -0.110165 0.136302 0.132951 -0.155411 0.104977 -0.104556 0.065313 0.0903975 -0.191722 0.130975 -0.109084
26 0.129428 -0.137114 0.00444727 0.0147347 -0.0672001 -0.0184736 -0.0540833 -0.0852776 -0.297547 -0.0517484 0.208055 0.0878963 0.0479874 -0.228207 0.261238 0.214805 -0.257892 0.17558 -0.133922 0.0684733 0.158797 -0.306656 0.223433 -0.22364
23 0.0894884 -0.0826512 -0.0162029 -0.0144183 -0.0517117 -0.0171362 -0.0352386 -0.0657247 -0.145612 -0.0468379 0.110575 0.0386343 0.0414297 -0.098238 0.102621 0.114896 -0.142674 0.0965957 -0.0639752 0.0275502 0.101068 -0.14722 0.127153 -0.0980085
9 0.0737161 -0.059625 -0.0215014 0.00255349 -0.0281944 0.00133154 -0.0279988 -0.0372127 -0.173587 -0.03706 0.128382 0.0663209 0.0255949 -0.123625 0.136977 0.119223 -0.151232 0.0721013 -0.086273 0.0401449 0.089165 -0.180291 0.140874 -0.110509
5 0.171649 -0.113091 -0.0278438 0.00594472 -0.0475236 -0.0311109 -0.0740103 -0.0716545 -0.319474 -0.0575809 0.220227 0.125922 0.0457449 -0.200685 0.214749 0.178178 -0.209678 0.166285 -0.187616 0.085735 0.1162 -0.294945 0.206793 -0.219196
11 0.188434 -0.105503 -0.0230083 0.050954 -0.0622721 -0.0490822 -0.0795457 -0.0730909 -0.317681 -0.0443407 0.250226 0.108838 0.0403888 -0.196462 0.205265 0.194375 -0.224704 0.134148 -0.194381 0.0869815 0.137004 -0.344758 0.227617 -0.22509
19 0.0852805 -0.0938649 -0.00943206 0.00962627 -0.0583906 -0.0249436 -0.0116703 -0.0594492 -0.163958 -0.04867 0.135378 0.0389195 0.0190057 -0.0988047 0.124053 0.111087 -0.120113 0.102489 -0.0932109 0.0646154 0.0994642 -0.151653 0.132387 -0.121224
27 0.0676357 -0.0896891 -0.0127877 -0.0135952 -0.0292486 -0.00253953 -0.0143736 -0.0424417 -0.181023 -0.0104812 0.133319 0.0466464 0.0142186 -0.136517 0.116162 0.124178 -0.135777 0.095225 -0.0841032 0.0304659 0.074456 -0.157869 0.120641 -0.112416
22 0.132116 -0.111095 -0.017822 0.0119931 -0.0456323 -0.0504446 -0.0617927 -0.0583891 -0.262294 -0.0278765 0.21106 0.081815 0.0274738 -0.148649 0.190324 0.17776 -0.21742 0.129851 -0.157406 0.047458 0.0961908 -0.297586 0.181955 -0.193875
21 0.0698792 -0.060691 -0.0024645 -0.0226506 -0.0539733 -0.0229069 -0.00161065 -0.0366811 -0.166081 -0.0291614 0.129242 0.0675015 0.0356244 -0.121523 0.125395 0.116174 -0.142025 0.101237 -0.0570594 0.0314498 0.0635945 -0.159202 0.10746 -0.101801
16 0.0636215 -0.0734783 -0.0150988 0.00355806 -0.0405113 -0.00408468 -0.0385906 -0.0665336 -0.179922 -0.0362864 0.142438 0.0570368 0.0320443 -0.10445 0.125154 0.114337 -0.129732 0.0722638 -0.0889264 0.0336297 0.0927875 -0.154913 0.131679 -0.138195
7 0.175517 -0.16413 -0.0261998 0.00537172 -0.082957 -0.0413859 -0.0837661 -0.10299 -0.373947 -0.0784937 0.285333 0.10752 0.0865624 -0.238146 0.289078 0.237148 -0.294802 0.201687 -0.195768 0.0867701 0.176808 -0.364122 0.281073 -0.237628
17 0.25112 -0.202181 0.00868506 0.0463045 -0.0692072 -0.0563734 -0.111821 -0.0730032 -0.44585 -0.0620504 0.326499 0.165829 0.0598077 -0.27446 0.30345 0.273105 -0.349868 0.235869 -0.277574 0.126773 0.167175 -0.460119 0.333664 -0.333071
3 0.146215 -0.135605 -0.00464434 -0.0201726 -0.0800403 -0.0314116 -0.0542749 -0.0806621 -0.236302 -0.0579604 0.175914 0.0801279 0.068383 -0.189454 0.20365 0.180077 -0.215787 0.13931 -0.124947 0.0623939 0.119962 -0.269919 0.200149 -0.168968
4 0.152243 -0.140175 -0.000913733 0.0030559 -0.0807049 -0.0230203 -0.0232043 -0.0750315 -0.265329 -0.0665807 0.216042 0.0894133 0.0649348 -0.161133 0.184057 0.168996 -0.22072 0.131233 -0.158022 0.0614966 0.132064 -0.290611 0.187124 -0.198198
29 0.113519 -0.0962919 -0.013429 -0.0085395 -0.0607977 -0.0303897 -0.0270774 -0.0650767 -0.209754 -0.019986 0.137849 0.0815399 0.0601033 -0.120128 0.143476 0.138893 -0.144193 0.0896403 -0.112393 0.0458629 0.0960559 -0.188503 0.159423 -0.160957
14 0.0873388 -0.103405 0.00814994 -0.0207861 -0.0432005 -0.00852196 -0.00899783 -0.050764 -0.190303 -0.0220015 0.142389 0.0605247 0.0597265 -0.158264 0.158312 0.15418 -0.172879 0.110915 -0.10532 0.046937 0.113982 -0.179519 0.158575 -0.154559
8 0.18544 -0.163574 -0.00187742 0.0400563 -0.0612292 -0.0349862 -0.08639 -0.0618588 -0.354484 -0.0572831 0.280395 0.133627 0.0378906 -0.197076 0.267557 0.194461 -0.284865 0.189551 -0.191937 0.0837434 0.159124 -0.389671 0.238071 -0.260718
1 0.145304 -0.115214 -0.000342651 0.024016 -0.0798803 -0.0216825 -0.0603121 -0.0609577 -0.277181 -0.050415 0.213381 0.10666 0.0341421 -0.196828 0.198636 0.169047 -0.237526 0.164761 -0.168235 0.0596316 0.122111 -0.276608 0.189528 -0.194447
24 0.128741 -0.100377 0.00499325 0.00896071 -0.0573349 -0.0245225 -0.0434806 -0.0869477 -0.214981 -0.033271 0.175822 0.0769738 0.0638938 -0.179663 0.175897 0.156056 -0.198249 0.116226 -0.116047 0.0480891 0.1238 -0.2269 0.179296 -0.181188
6 0.150277 -0.108666 -0.00750033 0.0216512 -0.064668 -0.0443347 -0.0520338 -0.0553965 -0.285593 -0.0480551 0.220871 0.0943122 0.0655056 -0.189263 0.228047 0.189219 -0.219187 0.153001 -0.172973 0.0762302 0.156301 -0.291024 0.220284 -0.18541
12 0.127734 -0.0848807 0.00966763 0.0263766 -0.0517842 -0.0189082 -0.0810908 -0.0261799 -0.269729 -0.0402793 0.193376 0.107133 0.0232089 -0.148061 0.158271 0.156925 -0.171318 0.112893 -0.149055 0.0557493 0.0824875 -0.27388 0.192614 -0.162043
31 0.0991517 -0.101137 0.00607163 0.00272086 -0.0608659 -0.034812 0.000280131 -0.0565751 -0.151251 -0.025853 0.127453 0.0645198 0.023031 -0.134163 0.132478 0.104405 -0.159047 0.0985481 -0.09005 0.0473418 0.109653 -0.1633 0.139836 -0.1214
10 0.0949891 -0.0988135 0.0233953 -0.00957734 -0.0473283 -0.0278429 -0.00301742 -0.0701646 -0.19727 -0.0290086 0.183348 0.068652 0.0251204 -0.149642 0.166739 0.125388 -0.186941 0.133605 -0.119434 0.0784704 0.123034 -0.207878 0.150762 -0.151317
